A1,A2,A3,A4,A5,A6,A7,A8,A9,A10,Age_Mons,Qchat-10-Score,SexIsF,SexIsM,EthnicityIsMiddleEastern,EthnicityIsWhiteEuropean,EthnicityIsHispanic,EthnicityIsBlack,EthnicityIsAsian,EthnicityIsSouthAsian,EthnicityIsNativeIndian,EthnicityIsOthers,EthnicityIsLatino,EthnicityIsMixed,EthnicityIsPacifica,Jaundice,Family_mem_with_ASD
0.3347684343974202,0.19488369326651256,0.010309478942000183,0.25099632711109443,-0.030987955221613905,0.11103944894878337,-0.029900067951066145,0.3450233975854031,-0.11061334148192525,0.07035812943708208,-0.45241512888490765,0.1810031770698653,-0.38576775895464654,0.0526450344577816,-0.3155432747954959,0.6398315792000852,-0.03391894053223443,0.15285672039988646,0.7038031232117313,0.45167111001058335,-0.17043704774871804,0.1212828293097627,0.29748087689952507,-0.34884194180381745,-0.22260326112007944,0.11160436912085792,0.2515593737620574
0.33654483058650686,0.19009062483688743,0.016206047757570063,0.25153176115316267,-0.024499790553928147,0.1129057506154596,-0.033473822454798574,0.34421607731574433,-0.11451920491347445,0.06954250278988017,-0.46941098049836405,0.2810295484295645,-0.4405363535828938,0.06516747604018713,-0.36555310164607213,0.6708838186595896,-0.01698216866023218,0.17457869352207633,0.6766301011109945,0.4305934860132836,-0.1360412863154975,0.15924073705330244,0.31736232354341076,-0.35876329124808387,-0.20012941973531637,0.13006794151661877,0.21951726068492294
0.3389822929719206,0.18475745035744473,0.022720676349645474,0.25230073688607546,-0.01711927666772195,0.11487585356159014,-0.037437756281230916,0.3434320224987688,-0.11929158098917059,0.06860761114147373,-0.49112624119270676,0.38251299318546617,-0.49998389660159415,0.08075062442818157,-0.4200828762442752,0.6937404431808939,-0.008387446658110406,0.19103269191902958,0.656400406695629,0.42088032018670674,-0.11042785730170207,0.1983955645211588,0.33217511551257795,-0.3757119068070696,-0.17765841106126812,0.1530605113198939,0.17803647744015805
0.34164406506256983,0.17960226444012006,0.028745489890292575,0.2536054376686139,-0.009982360708262972,0.1169265234415715,-0.04061739254612906,0.34283212824469644,-0.12369014991233906,0.0681983826442567,-0.5096262663963587,0.4836814824319394,-0.5550737456588224,0.09447506835569136,-0.4777069925216917,0.7335978619160469,0.002699763778662323,0.21662179834891443,0.6272899696255525,0.39842284051805144,-0.08337273279671711,0.2501510178592091,0.3495559659804989,-0.3988006542649387,-0.14498533221272608,0.16562809604642598,0.14190580484572812
0.3469115589825549,0.1758447382117816,0.030557147897058545,0.25732858229388667,-0.006220400647928059,0.11711143809889846,-0.03799485250286638,0.3423286169579076,-0.12565164422593744,0.07135809026690332,-0.4990114823138708,0.588229849289005,-0.6073792507434624,0.13864019251028273,-0.5334166722735061,0.7845800905636066,0.007626415501263251,0.25455471900087334,0.6281544192370629,0.3940162119316446,-0.050784832146877984,0.2975864825862732,0.3805442240143146,-0.4088875237621744,-0.1363673858895913,0.20935537012650324,0.11911998142103208
0.35015834547300595,0.17101780666924649,0.03599679234492248,0.25912382295266556,0.0005977779796884075,0.11926427952059249,-0.04006707288202849,0.34244822316543977,-0.13030582218368347,0.0715212021414875,-0.5175225847301186,0.6903202867135382,-0.6587021390387451,0.1530809051434684,-0.5914684258073919,0.8120368875881099,0.013026182253813412,0.2775037254049307,0.6141135697150814,0.37731443991793134,-0.01582059262674579,0.35116647488327135,0.4001798185157769,-0.4285657221875745,-0.11912409853106531,0.23871012248169782,0.08153108793848696
0.35556354438504967,0.1669970468960864,0.03887870274569205,0.2627561631560432,0.005689408329102252,0.12002736823984772,-0.03920195230514967,0.34223371886205534,-0.1338839779604103,0.07350025813498162,-0.5197439990807001,0.7959244192701995,-0.7179691247520958,0.19097109442948107,-0.6619770939407326,0.8648819996222687,0.029750535509628473,0.3033982292859052,0.6160391960427998,0.3725155912790715,0.01551896641069217,0.3895464546407422,0.4219382231773021,-0.4484381819684012,-0.09562124734589411,0.26555584882886735,0.057172656127192245
0.35998436480220697,0.16331882077767657,0.04175190427005249,0.26585237154055075,0.010580942519035519,0.12159055082155334,-0.03759642774901972,0.34328781453508506,-0.13735780515067209,0.07577522910490875,-0.5212461774913881,0.9029218644114587,-0.7666804600409423,0.2187932648419228,-0.7149867936301924,0.8961264350975271,0.0373652042380746,0.3370414558657582,0.6181554717229569,0.35807216770218103,0.050185392223608016,0.44504566873224716,0.4410942608481663,-0.4604396824551209,-0.0881476362224114,0.3050028260330893,0.030516672983723625
0.3650046848345361,0.15988519749548757,0.04417425745421788,0.26939396291619966,0.015545774407736968,0.12299594833979288,-0.03557358275766376,0.3443698604165024,-0.14076788333276902,0.07825931205707937,-0.521964937461562,1.010581530359333,-0.8151260867919947,0.2477999961952041,-0.7742189230984786,0.932452442328541,0.052604475886007696,0.3734050513526311,0.6192861746405156,0.34999035438554627,0.080970700718279,0.4855520292498494,0.47763823991320353,-0.478146449154618,-0.07360951249745779,0.32904570366675645,-0.004588588364855761
0.3692193612015471,0.15617231375784058,0.04794007334383088,0.2723321622774837,0.021520138866564897,0.12518745052661084,-0.03531409782414241,0.3457726694321053,-0.1452216021193835,0.07964464027650897,-0.5333268366496963,1.1194785261930216,-0.8634560484972176,0.26585580209177967,-0.8339568921548712,0.9720670323313443,0.07261424266652161,0.40671430841888256,0.6043354821470837,0.33298296078681006,0.10108083614751562,0.5287262285963259,0.503770762930519,-0.4988209447837537,-0.058127748119092604,0.35368017660593387,-0.04706641960286306
0.3735719414048567,0.15303573184394126,0.05061462687950824,0.27546102248122517,0.026445417608706,0.12717591607479795,-0.033954618534120184,0.3476156030168255,-0.14937749831813074,0.08155923454719949,-0.5402118046555694,1.2312481559038224,-0.9125818122235466,0.28931664753738773,-0.8953519890184081,1.0026627612921526,0.08422351973195269,0.4322466628730318,0.6072221912107811,0.3228360082441839,0.14003038703081166,0.5872588658956318,0.5259037123577233,-0.5188370679320967,-0.03676220677934858,0.3916659707512622,-0.07468392892574782
0.3780636444731712,0.15038345289029476,0.05258819342419829,0.27913142828751003,0.030744548122914606,0.12903728552273608,-0.03184096533366798,0.349621503514543,-0.15296028682901686,0.08424018167468572,-0.5430776666629529,1.3455817406640436,-0.9590513803947228,0.31504475635610724,-0.9562487222236212,1.0498979696706943,0.09063573443205236,0.4616551791980533,0.5913791583200533,0.33089427326256865,0.16613360723043355,0.6393196989242064,0.5534148017719868,-0.5322964515639159,-0.01576524084627212,0.4291541921555386,-0.10221968268463044
0.3833218461936424,0.14846865205918225,0.05310605644427513,0.28312648381035965,0.034224229606597434,0.13041718704818062,-0.028112035311796957,0.35190532476567704,-0.15627001166078258,0.08738524625012578,-0.5405751695156413,1.4628427902661418,-1.0061523955944418,0.34811929564839905,-1.0224030784674034,1.0906167188396159,0.09837656355763086,0.5102158871384733,0.603886314478079,0.3125431234576166,0.20447579965364393,0.68751186198016,0.5858876132286164,-0.5437909909758473,0.006160313323572114,0.46937108472605277,-0.13132105182210652
0.38740841635080014,0.14580263847177566,0.05622276910020685,0.2859840595255255,0.039602645437547435,0.13279741122372413,-0.027838594397159522,0.3543972440418749,-0.16155210403128806,0.08855503993707792,-0.5587639786669099,1.5805528785228338,-1.0596398420441129,0.3668735960702779,-1.08244800525555,1.1298969615611767,0.09926697001733142,0.5266373326203423,0.5997539888703997,0.2953496243884722,0.23815404308112736,0.7291600147662435,0.5944628614915203,-0.5675452191255523,0.025195697233534375,0.49894045254489294,-0.17645464340647588
0.39115431476007434,0.1437511386843371,0.05791607792033027,0.28926715442063256,0.043917306721162785,0.1355379474157582,-0.025218657905700992,0.35766056927852274,-0.16519946993161116,0.09116328851216415,-0.5652833103768132,1.7012459785213916,-1.0921414734833856,0.37749412822697725,-1.1424913193913844,1.1641950138683033,0.10503189650174688,0.5694780662650532,0.5913699466674782,0.2815402172738192,0.27059596742178793,0.7977822868668154,0.6303703462360645,-0.6001728907110022,0.04068988090510972,0.5337084608507202,-0.2088499251954593
0.39565620892450426,0.14183799554713405,0.05941099944543193,0.29278189648929864,0.04834408131471302,0.13779444417415176,-0.022930665677205253,0.36074466735197463,-0.16967050620056268,0.09350416465343148,-0.5733837315201138,1.8263843045951444,-1.143325751398325,0.4028332931237671,-1.2100370359130384,1.1924518783611142,0.1314485596319877,0.5989989811682264,0.5876494588162281,0.289810918869657,0.30901782074254613,0.8467765323864085,0.6582484981987988,-0.6055831841727438,0.0499461922987291,0.5662308875500714,-0.2461130356373359
0.399424202888533,0.14016122405758313,0.06134624370366493,0.29592734834353285,0.05288833964842066,0.1406019935309487,-0.021155790692960252,0.3642790937281867,-0.1742142349069148,0.09550302961344814,-0.5907632241097307,1.9531461097027336,-1.181618673516868,0.4123606039753078,-1.2700614530267371,1.235303981285853,0.13548799284931917,0.6358720905550881,0.5758795222128933,0.27664886852619397,0.33987521671937887,0.8835567197767615,0.6789574085177632,-0.6340652100832678,0.06495266554513979,0.6053016799417383,-0.2878744835962571
0.40284105873034415,0.13841279305038934,0.06344853334754563,0.29881993694141573,0.05757311523647224,0.14380408677420076,-0.01945028340266286,0.3682788683832541,-0.17899713520474902,0.09729527326639542,-0.6055433186321156,2.0840052428825,-1.2229008238391452,0.4203087978289682,-1.3331362464768195,1.263855098483572,0.138129737996743,0.6568105662725219,0.5754779972171529,0.25703318012866816,0.3714865041202646,0.9355797209280665,0.7187433483405123,-0.6625547082626757,0.07773538463252794,0.6351578008253167,-0.3159133418683683
0.40721352006468026,0.13736179482572575,0.0639190736203672,0.30243321114126576,0.06122927582580329,0.14636728856113757,-0.01592409900374725,0.37244673791357363,-0.18324166677648934,0.09998800625200599,-0.6102594593409527,2.2205891982921506,-1.2675848169066775,0.44265942796687946,-1.3976851016744474,1.2870708424251827,0.16712790079655243,0.6827791542641501,0.5847844423869304,0.24105568523739174,0.4073236165666726,0.9922125123113157,0.74938449048074,-0.6855833778841717,0.11015580545502845,0.6707782933785525,-0.35611442829476236
0.41115394075689105,0.13643116686150858,0.06457183472383243,0.3058708220290326,0.06513419962809819,0.14920754886119403,-0.01260075432937402,0.3769133082593191,-0.18764999812860073,0.10280537332810435,-0.6192716202524094,2.3607389025014847,-1.3090186826368337,0.4583488000028586,-1.4606398834733794,1.3176386735989587,0.1577724374138451,0.7286346407943596,0.585940255003068,0.23318060223179832,0.4500018863573586,1.045640509527151,0.7709950156586749,-0.7017228403146879,0.12120509467975371,0.7005005219512619,-0.39700853157573845
0.414539348867888,0.13498129045640672,0.06668797624251277,0.30875481528890203,0.07020147399575138,0.15266162116771242,-0.011330464210486113,0.38130577510887675,-0.19324214112923632,0.10423698281257787,-0.642544785515409,2.4995822270365604,-1.354808019609415,0.46289725460387277,-1.5306669451081627,1.3437741835869015,0.17569756989186458,0.7563354631169061,0.5699927159054299,0.22638921111969118,0.48841656694920293,1.0968206584553966,0.7961158522726346,-0.7183698560206706,0.15410427630919976,0.7321595100314304,-0.44441918122960866
0.4179283806590197,0.134672363161084,0.06670613175790585,0.3122113997126954,0.07338775017261945,0.15594836103932685,-0.0071935613540201615,0.3866244083382626,-0.19697812772912293,0.10749998291968366,-0.6528915285856347,2.647743119881332,-1.383718029237925,0.4705981752182102,-1.5885383325834415,1.3705521382691987,0.1815766596665901,0.7859924197353284,0.5749095593894764,0.2194622221059832,0.528058469300216,1.1462000300624735,0.8243968242761759,-0.7384712833492603,0.16286040057916334,0.761814210155304,-0.4678074095906579
0.42170839323115383,0.13438062262491135,0.06683659759112892,0.3156354136393975,0.07687502840799598,0.15895302567727465,-0.003780482364244886,0.39171683566495274,-0.2018448069885299,0.11016763743738278,-0.6656092472183996,2.799548844738129,-1.4321072331550144,0.48931144414544026,-1.6543258975978503,1.3961932521957423,0.18784616823402367,0.8158296914853364,0.5759910099364226,0.21181599250553607,0.5709554432263991,1.2121700485377012,0.8665737909752832,-0.768283982784383,0.17126863303858675,0.8001690643664406,-0.49096369526048844
0.4246783938585591,0.13337038041627913,0.068647770817446,0.31835313838702917,0.08170061663201544,0.1629029602923252,-0.0019288919763020829,0.39704962034428537,-0.20735109031866739,0.1117851720408195,-0.6878384139387028,2.9503806975038342,-1.466414042336493,0.4806562784494811,-1.7248076073678793,1.4128522211542323,0.2047106852295259,0.8517672699238633,0.5690890621437469,0.19777536711714522,0.5985722982360128,1.2666551591263846,0.8891911203659277,-0.7933751652025249,0.19169116291885807,0.8358981520639759,-0.5457024855784794
0.4276678354398096,0.13307619576790675,0.06962196499985218,0.3212940270329059,0.08588052336390928,0.16656856573961343,0.0005953831636529294,0.4025971498855838,-0.21275046570532363,0.11389218185309447,-0.7131209946178191,3.1084858784224925,-1.5085460781310531,0.4832557915220506,-1.7824352144551543,1.4404003138516077,0.215407573220332,0.8874462055559873,0.5510126625507681,0.18334544819007143,0.644886854186229,1.3185352600644458,0.909503627500973,-0.8254961697712297,0.20127319484405326,0.8667397803115044,-0.5843628230326264
0.4304830276764058,0.13340188811105325,0.06935711102357667,0.3245920809334857,0.08886948442711473,0.17028455957075472,0.004821422857739233,0.4087244087058437,-0.21690749819821686,0.1170755447223284,-0.728076523811437,3.27369036327255,-1.5349352417951438,0.48326918362561283,-1.8324262108279503,1.4695063572454705,0.21652224856052427,0.9176583096863435,0.5375191747397801,0.16685731035760631,0.6907323777734662,1.3782471250402049,0.9460838722504108,-0.8464501899188833,0.22035373291074045,0.9023560517421261,-0.6145053683461835
0.4340447501689946,0.1336430104740396,0.06913586286267037,0.3279889520794437,0.09220259701787015,0.1735553456069403,0.008354129559466017,0.4144778983495039,-0.2220401424867875,0.11973455417630952,-0.7440896531352776,3.4418249791863116,-1.579895759456002,0.4937494391188128,-1.9036019314993151,1.4950083827691167,0.21076316008944762,0.9475452602883223,0.5414904781825353,0.1635532377970358,0.7281044024967134,1.4398003639436858,0.9773620830005708,-0.8710143532296866,0.23893263524135022,0.9365432822616305,-0.6560031056379355
0.4360194984443031,0.1329707299775631,0.07121895288622326,0.33016648421516503,0.09718948216966217,0.17814459324648357,0.00972908190199373,0.4206081514519133,-0.2281035191393337,0.12097940334920443,-0.7764569234280043,3.6063421123451027,-1.6142167592986087,0.47328279278636337,-1.967052578092287,1.4971650582417966,0.2124107558638837,0.9594182664947684,0.5290175486707056,0.14811819121907444,0.7861373807107344,1.5064332549209103,1.0121134906739937,-0.8901072581231184,0.2504714701175039,0.9547738227918935,-0.7060610793380969
0.4393360891286514,0.13410018856853645,0.06975301125328026,0.3337668383654778,0.09952923337817421,0.1814458905147741,0.01506178003548131,0.4270173787670314,-0.23208707752004643,0.12467062274942842,-0.7865027180697579,3.7859575288474345,-1.6403512070184978,0.4803867058041747,-2.0187622684942648,1.5187558806029415,0.2304496077643607,1.011886086663169,0.5242482659436477,0.1389444384498315,0.8271421280384222,1.558779179582084,1.0511464648013455,-0.9244340996339089,0.26273438497710416,0.9911488548549316,-0.7480890185938497
0.44159148498861867,0.13439671015365873,0.07026435407886567,0.3364624064657764,0.10326749680869685,0.18568893768557415,0.018157300325989834,0.43360426835621246,-0.23734248694678084,0.12693783010853843,-0.8100171585955759,3.96414293373841,-1.6695400624803813,0.46787457946051847,-2.078018050360357,1.530685617034866,0.24571277230037536,1.0412163330778748,0.515624929253619,0.11751808344838605,0.8699260947477803,1.6250539291485353,1.074591209662476,-0.9605448340320102,0.2736357510641759,1.0145633252825883,-0.7840045270030691
0.44385858302445613,0.1347721925496006,0.07065793829791467,0.33914464173005787,0.1068515659719671,0.18992673224448553,0.02125288242572987,0.4402003282710487,-0.2426222483477385,0.12903312249387677,-0.8320715455297768,4.144208108237027,-1.6974547550653782,0.45309227784265865,-2.14225678607445,1.537466190887867,0.25778564873357346,1.061407362045095,0.5109428526164405,0.0949238655653073,0.9055670321341203,1.6803519908228792,1.119091749900363,-0.967100470100237,0.3031711013060569,1.0467128256353972,-0.8268457402796832
0.4463987389014158,0.13561355215643944,0.070445033943219,0.34201962216465287,0.110142068382317,0.1938399111557484,0.024831911234786563,0.44701299386686044,-0.24821845766048656,0.13151552132460853,-0.8527301014842021,4.335755938173535,-1.7404259435581504,0.4537811563352401,-2.197398284246518,1.5470043636326023,0.24728987915097828,1.0893569920684325,0.5075268820654544,0.08190327309525447,0.9681205914042242,1.742206853179205,1.1475920167717466,-0.996618159752795,0.32289159046162014,1.0716210013045266,-0.8631618698580464
0.44902972486181614,0.13716098580243985,0.06908049519092496,0.3451173119372434,0.11237725487041283,0.1973911639224567,0.029670671060050946,0.45394483276516573,-0.25288016118693923,0.13466230579277105,-0.8688806818741519,4.529978074746528,-1.771611744695706,0.45681764294501137,-2.235958790319554,1.559469024129445,0.2499602413549014,1.1267202406895491,0.5037933933420111,0.05825890571038961,1.021597049734165,1.7935656349081195,1.1766126508305041,-1.0255937460142934,0.3391099636164299,1.1068292885846744,-0.9051766295598749
0.45103146334157174,0.13746898058656232,0.07028863351922698,0.34735750224287987,0.11679286550321066,0.20178746459063168,0.0313288131058167,0.4606024362719028,-0.25963026547509394,0.13581688814808057,-0.9053581138230153,4.721723041937862,-1.8202212358087186,0.44126126789871245,-2.308345815382887,1.5600428376327788,0.25503217049658217,1.1479720692420012,0.49491250329491177,0.04022096174998413,1.0605781925034856,1.8501135738333723,1.1925023721526813,-1.0419626950433125,0.36590701516914875,1.1221425515092653,-0.9507492102638938
0.4535828342936188,0.13920966364127585,0.06859805351922255,0.35047924974069633,0.11868360779813591,0.20543998386437878,0.03638534540309779,0.46775703323419804,-0.2641969460772373,0.13892297752875682,-0.9167632493737047,4.9258909967274285,-1.8446155687283903,0.43911660497760796,-2.3625307167464973,1.5665426161796905,0.2696158138239958,1.1770035052235794,0.5096929063358503,0.01295157817841841,1.1256771996787043,1.9146512835462333,1.2329691503880835,-1.0795145147940501,0.3710144793062147,1.164309070113073,-0.978926994913285
0.4550230202968719,0.14048680925972068,0.06826566236402254,0.353093209229725,0.12147425079752017,0.2098681048590465,0.040135209379625,0.4750289781423347,-0.26900680214709594,0.1415590391125554,-0.942463056214965,5.127812659321902,-1.8548366726298169,0.4126529717297257,-2.4026146447515826,1.5763152540664636,0.2800740436698191,1.1953044723398616,0.47773340055167735,0.010423370629437767,1.174235310226794,1.9735413180961898,1.2788032659753048,-1.0987257955895564,0.38272498570386526,1.1883545088786747,-1.0131616931517475
0.456434099904655,0.14197588600848388,0.06768689908784165,0.35553207100275586,0.12407532408221389,0.2141602576972792,0.044202227120972104,0.48249363435601467,-0.27393421340431345,0.14419350569886724,-0.9641934246611621,5.335203536017294,-1.873673350499803,0.3935500545806766,-2.429914423060999,1.5688159757076394,0.2686557623706669,1.2142402096533944,0.4690346128786139,-0.003951732502583516,1.2314389357484707,2.0276123629260416,1.3036648413053535,-1.133169320555979,0.40383252817056237,1.200365674191896,-1.0411238562764
0.4583084097438397,0.14318318476097813,0.06762974395965493,0.357882712942182,0.12747922369199505,0.21843034883774792,0.04729556829604098,0.4897056456487958,-0.28003485523452354,0.14604847096194873,-0.9972605128935428,5.545771932491673,-1.9021342382921926,0.3705998801906797,-2.4901069822782578,1.5482544808315588,0.27516273725244755,1.2571040865591196,0.46627652376747364,-0.007074577997418896,1.2634524935761808,2.0878900200746973,1.3348551721307047,-1.1579486514627717,0.41756377251365606,1.2305584505849136,-1.0997238350971967
0.45982958688880493,0.14470149224327855,0.0673662001559161,0.3601724437333005,0.1303643159004928,0.22265063480713665,0.050375171328013835,0.4969955884401849,-0.28608703713685313,0.1477826533897122,-1.0289363594651708,5.759411915092687,-1.9420907567325036,0.35625624685927065,-2.532813930320822,1.5412967989389228,0.28821221781153344,1.254806795697014,0.4520212330500316,-0.03762531229603627,1.333158958855503,2.14598968465055,1.3747526576645548,-1.169625223650406,0.4492182963745637,1.2566853507154723,-1.135251232736455
0.4607663883234985,0.14612570465768115,0.06748100088636066,0.36219945400757037,0.13353569494957074,0.22744993890153986,0.053562358903191054,0.5048410079580028,-0.2920384442654036,0.149657490960853,-1.061178825990022,5.979615868820341,-1.9582195183269082,0.31988470350267906,-2.5708713388246043,1.523395713330649,0.28691206491313376,1.271980256877844,0.4414921426782251,-0.0637319728600092,1.372037913890083,2.2165610734528967,1.4088779738477193,-1.205761265772103,0.44497433840932255,1.2743864669255045,-1.1709709625029785
0.46267202347060676,0.14871268861308007,0.06524197646326435,0.36520182725389594,0.13479913187313874,0.2312286637419816,0.058837775379436685,0.512577807432407,-0.29675638980278807,0.15275473632749437,-1.0770340857166045,6.211146337824562,-1.9709048745682434,0.3083444849823727,-2.6107689061537687,1.5382336229331854,0.2831338711786625,1.2914884150692034,0.44790678508684945,-0.09438459370409835,1.4379873695033694,2.2725562096838035,1.4285216711183417,-1.2332122374411971,0.46209285205291606,1.3093942485107157,-1.2011972199552023
0.4636410579361867,0.15019494861652127,0.06555453920593246,0.3671118352121112,0.13814584352366732,0.23580794436963726,0.06134342629390943,0.5201562948122509,-0.30334055073634114,0.15415593241529657,-1.1170911862266841,6.435170414907629,-2.004182203419312,0.2770682819495186,-2.6487824521868233,1.5167935249197033,0.28997055894965096,1.304835099261147,0.4195786028330189,-0.10347665990072963,1.4903964171935846,2.326112052545023,1.4508058937411534,-1.2497943772160987,0.4809463234287221,1.3273156025163915,-1.2512506541985673
0.4649740923157133,0.1528642135707976,0.06337461446666603,0.36975623354781173,0.13942680518735506,0.23978962828278338,0.06686096463710633,0.5281536109655309,-0.3078254728639107,0.157316237720319,-1.13041986449207,6.671731399838684,-2.0078730119757133,0.2589223855624554,-2.6599827514292382,1.499630639974982,0.29105384030438686,1.324221698369496,0.41947893887568394,-0.126768677239266,1.5567675679698971,2.387535837135246,1.4981051013321731,-1.2867879287693498,0.495446177873921,1.3371570974404383,-1.28045990258739
0.4662340990862823,0.15477928195992074,0.06312173706091606,0.3718328337279617,0.14227033113766918,0.24398663307853452,0.06952636994971684,0.5356634494415964,-0.3145947445878132,0.15864370876591494,-1.1667341753812215,6.906677135380269,-2.055865858797545,0.23953027240057334,-2.710213312045644,1.4911200677446192,0.2929202362263611,1.333114752239214,0.40853506424845865,-0.1485629583644218,1.6145574884994147,2.4209228195876227,1.525142867330338,-1.3184952269284818,0.5034625860403379,1.3561177271986549,-1.3082016705428385
0.4670853485364159,0.15724564283518383,0.061777674494414736,0.3740570925580762,0.14415190414046708,0.2484509541990454,0.07393604302379231,0.5439036204632612,-0.3202175563491083,0.16093340218564056,-1.1937095080983133,7.151223587945944,-2.060350013618599,0.20385937488640457,-2.7336305560054277,1.4652257801966364,0.2820535304968636,1.352218999328152,0.4040023285058986,-0.18156841979239735,1.6720611074436809,2.5089516524507633,1.5497994196418423,-1.339638205761432,0.5233252544577172,1.392012805232691,-1.3459815674080462
0.4683854768738551,0.15943493638822304,0.06109860670727585,0.3762570955763169,0.1468485762419367,0.25260158810430555,0.07706908607398777,0.5516197633556907,-0.3269536065269407,0.16247609442663657,-1.2299647306103711,7.39712483398687,-2.107724743695257,0.18659794477026065,-2.776722861140587,1.4405006026115466,0.3037172749883412,1.3562027002367798,0.3873548231623124,-0.18501780225699593,1.7289925898806047,2.5633451520285684,1.5792811865140477,-1.3641474990641438,0.5339481978714025,1.3889583981444054,-1.3909360439808411
0.46918629492504693,0.16202772118242326,0.0601294309945728,0.3783640028536783,0.14900259414374672,0.257010973152503,0.08067512153735645,0.5597582178280367,-0.33335365976486275,0.16417451516357784,-1.265584957368793,7.6507878632072295,-2.130792189444394,0.15230906130522276,-2.807758618296775,1.4358438989328222,0.29344134647539594,1.378777166752055,0.3710665917926058,-0.2273380498881643,1.785420830598837,2.609000045395607,1.6067945795126457,-1.4166368530855917,0.5475871069994943,1.4139453852781942,-1.4118850292427396
0.4704934609291769,0.16548831837725864,0.05704308499096289,0.38119151121383776,0.1493996213822717,0.26072435237163205,0.08650729275283897,0.5680167248765144,-0.3382479155984903,0.16727115169515905,-1.2738366648117614,7.914173136642797,-2.1409032847711993,0.13959114764293867,-2.8263457950233883,1.4225330599847392,0.27193189222993297,1.3893739824946583,0.37320933902161196,-0.2308755059297054,1.8518841706451714,2.681399778102583,1.6462930740633412,-1.428861751639128,0.5667295619645665,1.457528263909984,-1.4237559751358233
0.47108658627159716,0.1680799270856328,0.0563111026598726,0.3830323979769643,0.15175470169150707,0.2652308363165057,0.08985704917760806,0.5762572762832949,-0.34489763248310545,0.1686264481326356,-1.315499679840226,8.170805611244509,-2.1632546256514447,0.0985460525816102,-2.8511000207491684,1.3970895153806246,0.28971900240330983,1.4017376322890707,0.3636935979866357,-0.287466144473616,1.9094871775013846,2.721527110025713,1.6527679053065167,-1.471237169540033,0.582542984098613,1.457322138946886,-1.4621340838170043
0.4716170526031571,0.17057187932819584,0.055660340108655504,0.38491123574606556,0.15411617382564513,0.26980159012797555,0.09300761471980756,0.584531233223641,-0.3517636836133513,0.1699828927988265,-1.3513302948000459,8.433439732627761,-2.1861613928507824,0.05325583810810053,-2.893947024930643,1.3640419646031474,0.27782434812791723,1.4110387954467758,0.3497362465044509,-0.2901711519885586,1.9617217120148076,2.7737973880871634,1.6748975404765518,-1.487945478246779,0.5887010489933685,1.4818250149780523,-1.4972449600921043
0.4723194842385907,0.17377440386598764,0.05396362886384409,0.3870350335476451,0.15577270367023432,0.27406453138072884,0.09742223924134397,0.5930703484933919,-0.3580973477998195,0.17192068626406565,-1.3807184013248697,8.708299700959088,-2.2099817772703676,0.025224473646740297,-2.900403550346205,1.3275307139526678,0.293913097442169,1.4300299601156832,0.335923099419472,-0.32324891380297416,2.0280070265052905,2.811793089228552,1.7115876498220728,-1.5239030665591722,0.5985825479871469,1.4792504916596037,-1.5241866888215672
0.47229517152325196,0.17659358613500942,0.05344065290994049,0.38871078166204365,0.15785821513009113,0.2788295781734442,0.10031816636037227,0.6016162172458945,-0.3651564304154751,0.1729882654594488,-1.4262112004592091,8.980349344309223,-2.225623210535405,-0.0312814007301242,-2.915532343318799,1.3147768965008066,0.2798767852466176,1.4012246176834722,0.2993236504507822,-0.3599783387361041,2.097157262776058,2.8513534146117747,1.7544579416265231,-1.558906964383768,0.6072045952270121,1.5135616015106204,-1.5469765586042943
0.47354907645809785,0.18040071271388314,0.050377277475128324,0.3914314025580712,0.1582931716682605,0.28259821921755934,0.10561693635046865,0.6100984460271448,-0.3710022314538328,0.17532212992044016,-1.4398643008419225,9.268908482039974,-2.241604747080343,-0.049695338904790276,-2.958655352903937,1.3070148689186574,0.2856525081845374,1.3887388560801819,0.3188132892074282,-0.40219799290277686,2.165689298885715,2.9303715498418663,1.7921813503596054,-1.5829685590433231,0.6311752181574688,1.538491231229166,-1.5639862479886286
0.4736549391497986,0.18341877912235027,0.04945283655617416,0.3930777136142316,0.16038913287494605,0.28711525495104606,0.10901144521686046,0.6186023437550734,-0.37792611293103384,0.17661443014522682,-1.4862529396362882,9.546687959510031,-2.261587371066086,-0.09805619401819382,-2.969950435175757,1.2614964911349649,0.2769393518036687,1.4134764078626088,0.2975832663064887,-0.42518886011379925,2.2259523007099102,2.957968855113758,1.8025829944947231,-1.6001964536420237,0.6243642928983779,1.529129224397697,-1.593890179503188
0.47448072534082497,0.18743899796256436,0.04646356481717806,0.3955583617646554,0.1606599317175994,0.29084316538209043,0.11438402148363203,0.6272399040681989,-0.3837979298305103,0.1790339780744863,-1.4976953330719331,9.843179610823714,-2.281165680775489,-0.11472603340235105,-2.9599705836439325,1.2342925116275631,0.26828807900700724,1.4080424044552764,0.2845825274739693,-0.4346270277898739,2.2915155122273294,3.001967379816529,1.8336652352408198,-1.6164671321466146,0.645661884195898,1.5651891006971481,-1.6217134025301483
0.4748427605004788,0.1909355901282055,0.044829199843984924,0.3974805358877975,0.1620997821675192,0.29510006755428364,0.11807024468215666,0.6358010317321328,-0.3909632563396461,0.18023772344134192,-1.5353734835114343,10.13754984048635,-2.3195634597022137,-0.14776774799490766,-2.9864984895049527,1.2089550890353216,0.2605282424848622,1.4079120064500577,0.2736050580006111,-0.49058257968041263,2.3461920762223984,3.059766714028517,1.8707252726497283,-1.6513953751341417,0.6709223816674362,1.5777563442904514,-1.6217308162731972
0.4746804422392059,0.19371829454983036,0.044671396266108054,0.39879645824375354,0.1646570367892921,0.2998612066812969,0.1204772575585995,0.6443658403167825,-0.39875777610906704,0.18077457367453365,-1.5888170458891,10.423710940372743,-2.341788187117163,-0.21375410596518785,-3.010124282532315,1.1453978208318518,0.2704408497256151,1.4072610916410402,0.24833373123577218,-0.5012313722764811,2.412192194581582,3.0979942423216302,1.8988473915670496,-1.6870044914626723,0.6469890406822891,1.5806454989966174,-1.6753766021089582
0.475625121996881,0.19809148212381178,0.041296273855036425,0.40135334922966504,0.16465969959981308,0.3032529402294095,0.12582398448140353,0.6528265532330559,-0.4048281574207051,0.1830298243572166,-1.6010966334761232,10.734141250746688,-2.384790625032026,-0.21239308999994355,-3.0063424459615287,1.1320292010155983,0.252201099675022,1.4061588486299115,0.24774715307770345,-0.5303852506776738,2.486283064194537,3.1325558689859943,1.9184555221812756,-1.7286339961157737,0.6813442094610289,1.5826936576923645,-1.670730579914854
0.47538675856924417,0.20129962731473583,0.04036431094381676,0.4029471775900113,0.16643180656757472,0.30794422735673255,0.12894690579337986,0.6615127564784293,-0.41198807407585214,0.1839591509326679,-1.6469978861040282,11.031823122527499,-2.384679779747989,-0.2856419226093021,-3.0453684424479692,1.0901624955016684,0.26341047899209524,1.4029505115855831,0.22699259066754862,-0.5510609427761354,2.5500467238718847,3.1718860776515645,1.9453364826521702,-1.7343965393041096,0.6590528459003857,1.593838334682348,-1.6924869615897915
0.47569219429040954,0.20507682483769063,0.03849405018990115,0.40481463596750844,0.16741416287683597,0.31189615914045676,0.1325990217633688,0.670026932396643,-0.4193629169554991,0.18500678077609445,-1.677619412424827,11.340775766800238,-2.4343523293540095,-0.3107523327868509,-3.051090112802713,1.0596144692138156,0.24039632295137997,1.3731124838336486,0.21667690390074035,-0.6023676180952424,2.6226418482103386,3.241832401840437,1.9697612160592102,-1.7631781255102292,0.6656157087534365,1.6201237761729188,-1.7172958891308587
0.47563299019445626,0.2088216958801059,0.036890394369555324,0.40648343661864406,0.1685981853593015,0.3161186191301084,0.1361699700459047,0.6787147789137906,-0.42658180522152644,0.18606029187048723,-1.7177175511981047,11.652515970846176,-2.462852034093725,-0.3562555326422926,-3.056855238419706,1.0093916750531913,0.20470167658527955,1.3549379984080931,0.21462279976308962,-0.6237532212465892,2.6763117911455736,3.2611184308695544,2.00480285787165,-1.791948583242906,0.6557863399559394,1.6219204624536938,-1.722692142849667
0.47606846554722315,0.21307644764073874,0.03400619204981936,0.408770687827841,0.1689374614133663,0.3199896690655111,0.14107214709359361,0.6874243215074034,-0.4329710878342232,0.18788736304116815,-1.7385406138510744,11.976024222306053,-2.467606639921215,-0.39532363898130973,-3.077917470024352,0.981369995953199,0.1961346789324382,1.375138692944948,0.21131130231094947,-0.6490794344159216,2.7480344807657486,3.3046924271310614,2.019049296601407,-1.8017613926215295,0.6865013801345994,1.6244648046302903,-1.7413554152922823
0.4762123418469506,0.21709876200381562,0.031943994655565966,0.4106444456814695,0.16962486673468424,0.32379717956999965,0.14472616807031446,0.6958216012400258,-0.44020057741692264,0.18894238029477473,-1.7730697559639206,12.293525584042222,-2.5165935033008306,-0.4219355198045218,-3.0798655526647094,0.9566808431137406,0.1961310626988343,1.3592475764200351,0.1791958317029233,-0.6792845471265723,2.8270189435099606,3.345333124924936,2.0307198764719407,-1.8442119552149923,0.7009933024519547,1.6554213791944414,-1.738360298276335
0.4762146437949335,0.22118036851773404,0.029702146809063024,0.41251961780026125,0.17016242192646214,0.3277201488774413,0.14886934880401625,0.7043947750177226,-0.4469431900342906,0.19024755829153595,-1.7963682898546973,12.614090600234956,-2.5367960490160035,-0.4634468089157241,-3.0791011997267863,0.9253331577874206,0.1869638047144675,1.3540563722259822,0.16169039014885356,-0.7180862938679766,2.9033034573378087,3.3701808279120535,2.0618732080676008,-1.8687348264613992,0.6953896858792574,1.6608677531369962,-1.7420184012639337
0.476102463810002,0.2247009291884705,0.028769427842649797,0.41396927896600655,0.17186223840576886,0.33201888106125566,0.15134334866796362,0.712879918973945,-0.45504126512439846,0.19046502440196278,-1.8535409079795624,12.933956968198318,-2.5755439302605505,-0.5238824325559053,-3.1218764289022647,0.8707101123128076,0.18615654402033588,1.3201313806137582,0.1571727604601798,-0.7428273370440304,2.9590266672947934,3.391118420051167,2.0897664679077286,-1.889736551331496,0.686053292914323,1.6599861839174377,-1.7803518000657728
0.47617198416942674,0.22928503407901513,0.0257172897736897,0.41607758679057394,0.17160169005996373,0.33575299837391936,0.15613712152778714,0.7216628966633065,-0.46150724920306363,0.1920792507984821,-1.8702410632141824,13.270859205644845,-2.5864769425507492,-0.5604265023419026,-3.111473445777939,0.8406948568436645,0.16612738053751175,1.2790763266750258,0.1570203274253148,-0.7768116424906542,3.0362431589794223,3.455677305431775,2.0935659501169095,-1.922550944020589,0.6953536992334457,1.6872544483377072,-1.7732705999421583
0.47636646126114535,0.23357158640647935,0.023162974583031293,0.41798074937337404,0.1719346265558288,0.3393903501532276,0.16014742540487603,0.7300401933630329,-0.4685680564442043,0.1931426947543251,-1.8973009821849516,13.602399978351922,-2.6314546469277733,-0.5883185656155941,-3.1397657680254993,0.7991559524007841,0.13953864235969737,1.284028999102503,0.16584750442028634,-0.8107023412490679,3.107907353193735,3.492908688799967,2.119729558779844,-1.9385150485924099,0.693412209563592,1.699926740646287,-1.7508510372139527
0.4758641904054448,0.23736357973375455,0.02196014472188157,0.4193945596016624,0.1732494210234261,0.34369146248371907,0.16311410491910117,0.7387159335438502,-0.4762650776372981,0.1936686975740658,-1.942868953509654,13.933253056883496,-2.6557724167144525,-0.654302276630246,-3.1412715236169273,0.7454201776785405,0.13829409854919084,1.2624273363842875,0.13276572466484693,-0.8342878331969338,3.1678286934202777,3.518597062762648,2.1307342648296115,-1.9764709801807026,0.6879641018163238,1.6781699973584063,-1.7782101126290581
0.47584785899109416,0.24163521679417332,0.01983447061910404,0.4210818722404097,0.173812621000641,0.3475380975218605,0.1667455690817814,0.7472983231134736,-0.4837883376796981,0.19429866005619623,-1.9781895221943693,14.273726560084901,-2.6966086252818986,-0.6955215813156853,-3.147623490157756,0.6879045013851937,0.1625360271097127,1.2290366018336703,0.1301535803918064,-0.8869366380102427,3.2362703268133886,3.5320827721368646,2.163682096158584,-2.0025687919228097,0.7080731926864905,1.700963827227631,-1.7977043745719814
0.47600723578552984,0.24633804525651382,0.01674168768792228,0.42312828122266044,0.1735148316655657,0.35100462383687026,0.17134309300660977,0.7558627053366402,-0.49053072885212856,0.1956647582682134,-1.9904437669692276,14.623966819601176,-2.7272167552403586,-0.7218260838391253,-3.1460964402579408,0.6542765615305682,0.13160356130462636,1.2195980966567657,0.13644900172142857,-0.9167746843022093,3.3181303312830823,3.5483361922637586,2.178014180007067,-2.005045116855845,0.6831819064220562,1.7289786307787833,-1.7892183105318182
0.4759168711740074,0.2504660854856482,0.014674739512344104,0.42489944829378334,0.1740417170485884,0.35479615421318034,0.17480277539389988,0.7641966307873211,-0.4977138145032871,0.19642601908153878,-2.022705672484799,14.963608084943562,-2.7510574504621736,-0.7772116555489785,-3.18505913147691,0.6330270956693248,0.11574025898723556,1.201976931929043,0.13078282445827916,-0.9538309905240066,3.368276810131121,3.5714028088144145,2.17994332211826,-2.012447987349135,0.660029134317163,1.7211995937852138,-1.8014298766173902
0.4752396720383629,0.2545818316442352,0.012983690332613484,0.4263022851999274,0.17479626232970347,0.35890473690141267,0.17805095093287093,0.7727618165748726,-0.5051320142713669,0.19699155131227553,-2.0701028509162844,15.304155645356904,-2.7688077565738207,-0.8432772267851083,-3.1755407508592826,0.5723571332002242,0.10673636144483262,1.1769659346148666,0.09780200454470867,-0.987504759596457,3.441044868802903,3.6307826511900627,2.212868415254176,-2.0540388496855218,0.6730429484268549,1.7155368817464374,-1.7940090685392873
0.4754826569674977,0.25955496222919994,0.009458994704387713,0.42849900789964757,0.17401171884088829,0.36209767583526187,0.1828419989137693,0.7811735385060823,-0.5116716661608391,0.19845759188502932,-2.076520704023979,15.665479946697431,-2.796665349517008,-0.8652937423003282,-3.1725914587495216,0.5551651807145564,0.07874627148251351,1.171135449452007,0.08868869012640385,-1.0026440809863009,3.5268137748662842,3.6386519027755355,2.2275640984641667,-2.0643002634233474,0.668328363688904,1.7732049168771495,-1.7762959422445401
0.4749466430683862,0.26343259426660737,0.008165048630610627,0.429918149499108,0.17498058578206876,0.3660677774135861,0.18545457548106548,0.7894257885357208,-0.5192686374823161,0.19874426039712834,-2.1227834058263824,16.00624232761385,-2.823843494064852,-0.9340991255549045,-3.1849971909478527,0.5234041616973734,0.05950346731271938,1.1159336472701789,0.04748030483829735,-1.0194598873067644,3.580191864382178,3.64629345668112,2.2467149610946078,-2.0784984141960825,0.6800682260115728,1.7468280901385704,-1.8099504155586656
0.4744777576945136,0.26744288040426323,0.006692750781579271,0.43117674080556245,0.17585778496487414,0.369854796263378,0.188141501302443,0.7976366529786425,-0.5272222391287045,0.19881836703684197,-2.1611977929836144,16.351927727998575,-2.8989189570404514,-0.971810603361513,-3.1937437319432487,0.45140392416804537,0.03502330759532146,1.1037972538057854,0.039690781508400996,-1.0569240426901927,3.650606821330649,3.664467856123858,2.259022340494025,-2.1180547709664452,0.6813392994380467,1.7507088628566545,-1.78995390750735
0.474513109826451,0.2720951203641331,0.0037285131428683727,0.4331091112690375,0.1755447174083704,0.37320744425548025,0.19236596638462,0.8059117126639466,-0.5339678531862875,0.19988536764808273,-2.1803556760618408,16.711442720590913,-2.9216521862039384,-1.0105405932028373,-3.2079676536093724,0.4108739244054586,0.024406747616304764,1.0929408377922978,0.045361720391770444,-1.0835815224760315,3.7181689809829996,3.696076570370546,2.2630720589812245,-2.115583307343373,0.6551924106135614,1.7652829446562415,-1.7941520097642574
0.4744650402886528,0.2767684547986642,0.0008276168726393252,0.435015678368905,0.17523173156955885,0.37659425403894353,0.19653593929888036,0.8142012872551945,-0.540765359550865,0.20084416092598545,-2.19043025245864,17.075146541437622,-2.9509291181705652,-1.046509769064019,-3.216849765124837,0.3859746366866698,0.02562756337083999,1.0725062136389374,0.038792242610571015,-1.1425182121157338,3.795829363361979,3.720691842125955,2.306439267542731,-2.130173359492545,0.6396834120773863,1.765954207899805,-1.7829591328195464
0.4738922637337497,0.28110535752758103,-0.0012590782761110475,0.4366080941707393,0.175353371889039,0.3802740342634321,0.1998380757772269,0.8224313811076227,-0.5477357398594238,0.20153567487037094,-2.2276459963846724,17.429675740425484,-2.9541415442929475,-1.116457672082638,-3.2076111071007745,0.35979762221185435,0.0021749164386493103,1.023632008268438,-0.007782318774729902,-1.1423155588624132,3.865823093467727,3.7354418770242903,2.299592531321823,-2.1446178120308703,0.6560208085864115,1.7731664305762926,-1.7910946016283118
0.47369459693960625,0.2852535296436214,-0.0029870550832251652,0.43802124985051805,0.17599181791232343,0.38371752350121735,0.202500316290962,0.8303678567693114,-0.5556546152634159,0.201595957966763,-2.26746474686535,17.784830333449662,-3.032627206015431,-1.151059049206138,-3.226053581838123,0.31630008590354597,-0.03715426047525247,1.015867911196889,-0.01798961364478946,-1.1946820755653635,3.9325553412372343,3.7567200459061545,2.293322108083731,-2.1732664795103283,0.6269974822936863,1.774752964009532,-1.8189095129788155
0.4736546214324706,0.29021931979664206,-0.006468031625011861,0.4400687453674337,0.17494683347559192,0.38686590677744803,0.207089699346235,0.8385767789359244,-0.5619338280345625,0.2027603316134341,-2.2663474727218986,18.156342539543637,-3.046409708373133,-1.184170725599816,-3.225332649153473,0.2983618289749364,-0.02440988524149479,0.9575472850483688,-0.015382903105553625,-1.2496594291248029,3.999461598366968,3.792360287845338,2.3166020310580473,-2.1749467351037683,0.6356212756736566,1.8153807986168413,-1.7870612351202548
0.47304405809137773,0.2943512685691978,-0.00829646568739939,0.44144950820124773,0.17537814880658775,0.3905405371506223,0.2100868464993635,0.846635532785581,-0.5691931559523207,0.20312026480341228,-2.2976127355245666,18.512415176919905,-3.072631842704632,-1.2515815045095025,-3.2496505864179115,0.24914783250865435,-0.08539677589571537,0.9527280304104138,-0.027470950954447404,-1.2760097336031841,4.053571839272998,3.82548905550397,2.3448668240398836,-2.1809389021776555,0.6171718326532525,1.7950559780162578,-1.7759601155348057
0.4726691769507285,0.2987870342421619,-0.010464448311793717,0.44295722122951364,0.1753768560408444,0.3938922126112976,0.21316314915747903,0.8545827588174459,-0.5764539933623238,0.20346215145776814,-2.3340885765253288,18.873993276788607,-3.1137361927720115,-1.3006926017253477,-3.2411067810220286,0.21649814448473972,-0.08796064348128241,0.9047625279656747,-0.05661543161624871,-1.314302960019039,4.120253481403377,3.8355839347613943,2.35346910068489,-2.240236992764059,0.6101914117962248,1.8226888536683523,-1.7781859824565582
0.4723203399644449,0.3030752235262053,-0.012564030639392598,0.444451079442147,0.17552359814745255,0.39727115799456403,0.2161489640548897,0.8624333678565828,-0.5837068345083951,0.2037478167869624,-2.364996006540575,19.235179700587214,-3.160904736754903,-1.3496074559703866,-3.2750732607071873,0.17328805690696084,-0.0925376411906717,0.8860511806533762,-0.06419854012642767,-1.3408458565895853,4.1973020758953385,3.854291013743804,2.3427964339242227,-2.2705528519923943,0.6029047255737613,1.8287830409643147,-1.7582240760475516
0.4717349242655917,0.30762120390259984,-0.014956586586976961,0.44594108059709736,0.17531678270042583,0.40072147402189273,0.21960569448514455,0.8705540352689702,-0.5906679695826709,0.2042789020576974,-2.3883428749864803,19.605265379307205,-3.183680401782348,-1.4068556170795088,-3.2695052603925334,0.12877348992943483,-0.13615714742217022,0.8544368276672221,-0.07018449144363312,-1.3830946519462115,4.261337242051097,3.8583288858202094,2.353454463285915,-2.25515331347967,0.5858092848782677,1.8361358370073841,-1.730878991471317
0.47144279138401934,0.3120479647097394,-0.017265561059335965,0.4474971412288955,0.17529162073685356,0.4040084056162696,0.22286973148141165,0.8784575890772697,-0.5978135261179558,0.20467798156476036,-2.407915247924128,19.975733944157927,-3.233802418611059,-1.4492656781691668,-3.2845288853072985,0.0662661091700325,-0.12632139047235058,0.8305182236467131,-0.08505869133706334,-1.3896303061543465,4.319355014501882,3.8454603469315973,2.389626664585468,-2.249540470717419,0.5772657421374277,1.8430086177413514,-1.7260636505946432
0.47105090089871915,0.31667674981386273,-0.0198425179307673,0.44908226491039915,0.17484295765918034,0.4071806910289544,0.22622463013777416,0.8863172250464793,-0.6047427653644135,0.2051632061565023,-2.436124123242259,20.346408780766804,-3.262734668345633,-1.4999721708235736,-3.272857218334118,0.04195322277707425,-0.15771888986940502,0.7790763680000944,-0.10653050135656303,-1.4356561043477738,4.383868484173659,3.8864614946104847,2.387597248922436,-2.301074019305479,0.5839005231255077,1.8806486866520458,-1.7155855803504914
0.47086710857904723,0.3210856686973482,-0.022174342658276558,0.45065305791879684,0.1747027991554182,0.4102930496881054,0.229277397736098,0.8940230213168574,-0.6119530529401223,0.20542032172144342,-2.4522968973045254,20.718701929564364,-3.330448067837102,-1.5305329658801616,-3.3003701088578357,-0.0006915252924982185,-0.1581554888222959,0.7340937732730299,-0.10774092153684872,-1.4642183594039473,4.455969633820841,3.8964019272423447,2.382610598302128,-2.3032943795184893,0.5690035105463296,1.8967981957257902,-1.7155744730044784
0.47064902889944804,0.3255795269574868,-0.02459208888710407,0.4522278308638157,0.17456832769229003,0.4133826488589323,0.23247643912746874,0.9017200387696782,-0.619007163234099,0.2058241288357312,-2.4813344420504793,21.0921983784933,-3.372389246724148,-1.5782976701359106,-3.3125493909472814,-0.04680307453427468,-0.19308956685353834,0.7269322551808882,-0.12413018342367571,-1.4756239340405324,4.520281342651463,3.880304310501057,2.4054980600379148,-2.303110804868236,0.5607182827689006,1.89899202676619,-1.7388555645071024
0.4703056063606219,0.33026988493865783,-0.027416368927740464,0.4539212646000932,0.1739472302882934,0.41644570152098837,0.23623568042836585,0.909515471511467,-0.6254863092569849,0.20655886907534793,-2.488736046758379,21.46962984668852,-3.3918664765722553,-1.6263033438934134,-3.3042747097028666,-0.06288188911285986,-0.1843634229457068,0.7124664695747367,-0.15270489626999012,-1.532142980501178,4.572514186383565,3.8943862883843727,2.4062405912447113,-2.3261444942412295,0.5319651967543743,1.894820019712303,-1.7186251508234447
0.46939306192563457,0.333990500774485,-0.02814262836269954,0.4547891228087799,0.17497399781860956,0.42010944318530363,0.2375956475819354,0.9171334575920778,-0.6336223733789419,0.2058877639545198,-2.5473969587077168,21.830192311608478,-3.4651363892369424,-1.7019014267568997,-3.3441428583181088,-0.12803721546709435,-0.2371919748664929,0.6456326700308163,-0.16945725401616296,-1.5470676056045547,4.631597375223333,3.8869924652286043,2.404982603922976,-2.3409245941570505,0.5169309398785542,1.8823292145087513,-1.7238980681159886
0.4695963824295317,0.3391790171835023,-0.03213852526693284,0.456912692756851,0.17337316738044262,0.42258447128037613,0.24230805215524764,0.9247808266933335,-0.6395639982785912,0.2071539421771469,-2.5291646546574906,22.2232794653101,-3.4859949683077094,-1.7181883370265212,-3.32778048758408,-0.14038630802810304,-0.2663663396234779,0.6370119937458183,-0.17272546776530284,-1.5756182954974758,4.697278455704264,3.9303422260923444,2.422274331843184,-2.368009735356353,0.48373806961882304,1.950494818668694,-1.7148891660659182
0.4689819375753679,0.3434037028111625,-0.034131648906558176,0.45824109171707406,0.17337908350665288,0.425832823157422,0.24517396810083714,0.9324051273385958,-0.6465044483168141,0.2073794935359219,-2.5502609031525854,22.594246457770836,-3.5271922362010466,-1.7746505460867428,-3.3301607206783994,-0.20444987256673497,-0.2772879717403572,0.5948005097377582,-0.19193226755925202,-1.5935962322522776,4.758418920428277,3.941211501292296,2.419369010226053,-2.3500359683716345,0.476602924510652,1.9266226134204596,-1.7158175784896341
0.46853102649415135,0.34784816421899123,-0.03649706716639578,0.45966015210497346,0.17298779894153427,0.42883837119721235,0.24814043540394692,0.9398459443706546,-0.6532849569181263,0.2076177103751924,-2.5755134325370834,22.967594564154545,-3.5632354087600824,-1.828678980748188,-3.348262819583292,-0.22688074452480556,-0.3194809787712434,0.5685810769039527,-0.19507352584435655,-1.6513529171436898,4.829879955423305,3.935010854879195,2.418005360823005,-2.3680813431561667,0.454092484845523,1.9533945887187778,-1.6850411117037059
0.4681359747879057,0.35216154712861414,-0.038809711032879335,0.4611494077984508,0.17272612897489736,0.43187729144536924,0.25124356450423146,0.9472993888098298,-0.659887125441867,0.2080158590024368,-2.5914032787842336,23.3421040511883,-3.585260628083014,-1.8891937126698157,-3.3656285252665636,-0.2830296440419471,-0.31505482198679413,0.5380602187856597,-0.2105329383789134,-1.649555570907978,4.891433092051023,3.9329456095154343,2.428428281436957,-2.379106790195485,0.4527063292579462,1.9412430474197446,-1.695528402852819
0.46731193148355743,0.35613556762785326,-0.04014224234509811,0.46214258264784736,0.17315942706172116,0.43520051303438834,0.2532122628566027,0.9547058062762233,-0.6674086742175946,0.20765910431410006,-2.6352742636945052,23.709334841438945,-3.6490764577233916,-1.9540401405537717,-3.372672192380783,-0.3377893690408532,-0.3362281721925783,0.5075714567530608,-0.24751933061685477,-1.709519109612856,4.952756559329836,3.936391894975052,2.4401725306142574,-2.386078481513332,0.41744331264441126,1.9570869276747613,-1.691428857583434
0.46701497213732246,0.36066745639285447,-0.04286358707410276,0.4637410269077771,0.17239534026113112,0.4379846406038199,0.2564808401563585,0.9620197269981148,-0.6737896461172701,0.20814511009505043,-2.6517161587958697,24.087704781689595,-3.6723168526468184,-2.0017567171338935,-3.374711707195301,-0.3593870996466908,-0.3443599665074384,0.435236528783272,-0.25814744598416656,-1.749573504745689,5.011308940362376,3.9774203595875104,2.4301564420726396,-2.3986302909580073,0.3937964293280293,1.9861512066518623,-1.694686416450921
0.4665722623423907,0.36513737607742236,-0.04541056611917593,0.4652050500560918,0.1718671187365679,0.44089963260304454,0.2597364626748382,0.9694258501290953,-0.6803622039863981,0.20852825328991376,-2.6530803088656825,24.47161299722932,-3.71383932296298,-2.0451384553804934,-3.3808886004735155,-0.4029300143246872,-0.37127400302551183,0.42632895164273366,-0.2729476812682462,-1.7946130634560238,5.070339120455486,3.975662156651815,2.4795253887921964,-2.3903430509433137,0.38521302043976635,2.0011414003500514,-1.6631535391650107
0.4664643931486001,0.3696691600623847,-0.04824775805651793,0.4668033045683728,0.17109438654472875,0.4434548697163372,0.26312284600551106,0.9765689814937488,-0.686671373425078,0.2090567330316544,-2.6523684193238823,24.852730220730557,-3.7620146405382306,-2.072379965351571,-3.378751135771252,-0.45013450450366066,-0.436977308939245,0.3930910644951513,-0.25511134187050777,-1.8065746778287912,5.128413015867566,3.969823137111765,2.4958612455619353,-2.427970550720584,0.3849654235230562,2.004131190667299,-1.6766713059418035
0.465870220033068,0.3738595004543743,-0.05016158931678216,0.4680955648377392,0.17094781820146743,0.4464010471423103,0.2654561978937595,0.9837100766568394,-0.6935367478320966,0.2091229107886372,-2.6872837635818896,25.228241703779126,-3.813796982343875,-2.126059040632453,-3.3929691799564705,-0.4744096397055739,-0.43993339292979716,0.3414638299368751,-0.30958782891002956,-1.8025413320254737,5.179270677019745,3.962610815544519,2.498479834923741,-2.444144909727831,0.34360935079945776,2.0217326671817064,-1.648676945393575
0.46541061826024865,0.3780477843621428,-0.05229277432643986,0.4693780886994636,0.1706702688452726,0.44928738642638066,0.26812130515864574,0.9908222365704837,-0.7002503326913248,0.20913351033069194,-2.703852359330849,25.601854124073007,-3.866397757053406,-2.174832512487539,-3.417893846734226,-0.5234340830000472,-0.44220530598171737,0.30131865895822574,-0.304152206674234,-1.8752207990780252,5.233910873575338,3.9926671541543155,2.504286178220575,-2.465217266497873,0.32821880028912503,2.034954067472567,-1.6381919045792033
